digraph Tree {
node [shape=box, style="filled", color="black"] ;
0 [label="x2 <= 15.5\ngini = 0.495\nsamples = 482\nvalue = [266, 216]", fillcolor="#e5813930"] ;
1 [label="x1 <= 11.5\ngini = 0.411\nsamples = 235\nvalue = [68, 167]", fillcolor="#399de597"] ;
0 -> 1 [labeldistance=2.5, labelangle=45, headlabel="True"] ;
2 [label="x2 <= 5.5\ngini = 0.478\nsamples = 109\nvalue = [66, 43]", fillcolor="#e5813959"] ;
1 -> 2 ;
3 [label="x1 <= 2.5\ngini = 0.176\nsamples = 41\nvalue = [4, 37]", fillcolor="#399de5e3"] ;
2 -> 3 ;
4 [label="x2 <= 1.0\ngini = 0.32\nsamples = 5\nvalue = [4, 1]", fillcolor="#e58139bf"] ;
3 -> 4 ;
5 [label="gini = 0.0\nsamples = 1\nvalue = [0, 1]", fillcolor="#399de5ff"] ;
4 -> 5 ;
6 [label="gini = 0.0\nsamples = 4\nvalue = [4, 0]", fillcolor="#e58139ff"] ;
4 -> 6 ;
7 [label="gini = 0.0\nsamples = 36\nvalue = [0, 36]", fillcolor="#399de5ff"] ;
3 -> 7 ;
8 [label="x1 <= 10.5\ngini = 0.161\nsamples = 68\nvalue = [62, 6]", fillcolor="#e58139e6"] ;
2 -> 8 ;
9 [label="x1 <= 9.5\ngini = 0.034\nsamples = 58\nvalue = [57, 1]", fillcolor="#e58139fb"] ;
8 -> 9 ;
10 [label="gini = 0.0\nsamples = 51\nvalue = [51, 0]", fillcolor="#e58139ff"] ;
9 -> 10 ;
11 [label="x2 <= 10.0\ngini = 0.245\nsamples = 7\nvalue = [6, 1]", fillcolor="#e58139d4"] ;
9 -> 11 ;
12 [label="gini = 0.0\nsamples = 1\nvalue = [0, 1]", fillcolor="#399de5ff"] ;
11 -> 12 ;
13 [label="gini = 0.0\nsamples = 6\nvalue = [6, 0]", fillcolor="#e58139ff"] ;
11 -> 13 ;
14 [label="x2 <= 11.0\ngini = 0.5\nsamples = 10\nvalue = [5, 5]", fillcolor="#e5813900"] ;
8 -> 14 ;
15 [label="gini = 0.0\nsamples = 5\nvalue = [0, 5]", fillcolor="#399de5ff"] ;
14 -> 15 ;
16 [label="gini = 0.0\nsamples = 5\nvalue = [5, 0]", fillcolor="#e58139ff"] ;
14 -> 16 ;
17 [label="x1 <= 12.5\ngini = 0.031\nsamples = 126\nvalue = [2, 124]", fillcolor="#399de5fb"] ;
1 -> 17 ;
18 [label="x2 <= 12.0\ngini = 0.375\nsamples = 8\nvalue = [2, 6]", fillcolor="#399de5aa"] ;
17 -> 18 ;
19 [label="gini = 0.0\nsamples = 6\nvalue = [0, 6]", fillcolor="#399de5ff"] ;
18 -> 19 ;
20 [label="gini = 0.0\nsamples = 2\nvalue = [2, 0]", fillcolor="#e58139ff"] ;
18 -> 20 ;
21 [label="gini = 0.0\nsamples = 118\nvalue = [0, 118]", fillcolor="#399de5ff"] ;
17 -> 21 ;
22 [label="x1 <= 21.5\ngini = 0.318\nsamples = 247\nvalue = [198, 49]", fillcolor="#e58139c0"] ;
0 -> 22 [labeldistance=2.5, labelangle=-45, headlabel="False"] ;
23 [label="x1 <= 19.5\ngini = 0.095\nsamples = 200\nvalue = [190, 10]", fillcolor="#e58139f2"] ;
22 -> 23 ;
24 [label="x1 <= 16.5\ngini = 0.033\nsamples = 181\nvalue = [178, 3]", fillcolor="#e58139fb"] ;
23 -> 24 ;
25 [label="gini = 0.0\nsamples = 156\nvalue = [156, 0]", fillcolor="#e58139ff"] ;
24 -> 25 ;
26 [label="x2 <= 17.5\ngini = 0.211\nsamples = 25\nvalue = [22, 3]", fillcolor="#e58139dc"] ;
24 -> 26 ;
27 [label="gini = 0.0\nsamples = 3\nvalue = [0, 3]", fillcolor="#399de5ff"] ;
26 -> 27 ;
28 [label="gini = 0.0\nsamples = 22\nvalue = [22, 0]", fillcolor="#e58139ff"] ;
26 -> 28 ;
29 [label="x2 <= 20.0\ngini = 0.465\nsamples = 19\nvalue = [12, 7]", fillcolor="#e581396a"] ;
23 -> 29 ;
30 [label="gini = 0.0\nsamples = 7\nvalue = [0, 7]", fillcolor="#399de5ff"] ;
29 -> 30 ;
31 [label="gini = 0.0\nsamples = 12\nvalue = [12, 0]", fillcolor="#e58139ff"] ;
29 -> 31 ;
32 [label="x2 <= 26.5\ngini = 0.282\nsamples = 47\nvalue = [8, 39]", fillcolor="#399de5cb"] ;
22 -> 32 ;
33 [label="x2 <= 25.5\ngini = 0.093\nsamples = 41\nvalue = [2, 39]", fillcolor="#399de5f2"] ;
32 -> 33 ;
34 [label="gini = 0.0\nsamples = 34\nvalue = [0, 34]", fillcolor="#399de5ff"] ;
33 -> 34 ;
35 [label="x1 <= 25.0\ngini = 0.408\nsamples = 7\nvalue = [2, 5]", fillcolor="#399de599"] ;
33 -> 35 ;
36 [label="gini = 0.0\nsamples = 2\nvalue = [2, 0]", fillcolor="#e58139ff"] ;
35 -> 36 ;
37 [label="gini = 0.0\nsamples = 5\nvalue = [0, 5]", fillcolor="#399de5ff"] ;
35 -> 37 ;
38 [label="gini = 0.0\nsamples = 6\nvalue = [6, 0]", fillcolor="#e58139ff"] ;
32 -> 38 ;
}